"use strict";

export const HUNTER_BRAIN_WEIGHTS = {"version":1,"input":18,"hidden1":12,"hidden2":8,"output":10,"w1":[-0.2850094,0.0718623,-0.6076801,-0.151364,-0.2104467,0.7071363,-0.670049,0.9293944,0.0590086,-0.7887655,-0.3147241,0.0613581,0.6327735,0.4594634,-0.2014883,0.2599509,0.5341306,-0.0657373,0.5536501,0.0494099,0.2709009,0.1479504,-0.0307661,-0.3709235,0.1519921,0.1508238,1.379229,0.9436158,-0.2023224,-0.7355615,-0.4649201,-0.0556672,0.1222044,0.1474516,-0.7678004,-0.4503718,0.0236843,0.1139593,-0.1490176,0.2473925,-0.1922833,0.0826274,-0.0419478,-0.5743367,0.7511754,0.3065785,-0.1886703,-0.2183761,-0.0961118,-0.2973803,0.601203,0.2356937,0.6023395,0.4764742,-0.0822589,-0.1679212,0.2404594,0.4822479,-0.2795507,-0.3820397,-0.377491,-0.6561161,0.2144737,-0.1448125,-0.1411251,0.1972233,0.1709297,0.2721721,0.0552593,-0.2482432,-0.5299823,-0.2554601,-0.011361,0.0362517,-0.5413596,0.1167795,-0.3035215,0.0918375,-0.389861,0.3849764,-0.3433254,-0.8836781,0.223573,-1.0992412,-0.3789582,-0.0012353,1.5757046,-0.0733311,0.3228502,0.325812,-0.3001566,0.1975039,-0.1645762,0.2213585,-0.3694163,-0.3108831,-0.5412718,0.0714064,-0.1556118,0.0423349,0.1763142,0.1196313,-0.1342267,-0.2850058,-0.3143819,0.3444731,-0.1147303,0.1966213,-0.011111,0.0728708,-0.0218998,-0.5232,0.687865,0.6079776,0.0940156,0.8543005,-0.4018177,1.1642479,-0.1050612,0.5396228,-0.4762918,-0.2105674,-0.9030664,0.2777679,-0.143795,-0.3738968,0.1697223,-0.0839361,-0.7373936,0.0763851,-0.2917597,0.3387865,0.2952643,0.4370845,-1.2960773,0.4180531,0.0909725,0.322362,-0.5535703,-0.5121928,0.1808057,0.1315743,0.3508991,0.3107227,-0.2290436,-0.05858,-0.3844805,0.049557,-0.1762794,-0.0774642,-0.6446999,-0.2605377,0.258384,-0.3836317,-0.1735312,0.6702507,0.532159,0.7598152,-1.0940659,-0.0931114,-0.5344753,0.0556176,0.3827715,-0.0012415,0.854123,0.214613,0.6351154,-0.5126147,0.3050236,0.0416388,-0.7216793,-0.6347874,0.0363622,-0.6966008,0.1852096,0.3977553,0.5229349,-0.1402407,-0.755824,-0.3128371,-0.3553917,0.010257,-1.3561242,-0.2017035,-1.2605545,0.1156839,-0.0745903,-1.1674513,-0.2158665,-0.2669279,0.1382398,1.3346108,-0.3490791,-0.3464554,-0.2059911,0.033292,1.817623,0.6523734,-0.1055338,0.092588,0.938094,-0.2563529,0.6726181,0.0634562,-0.075277,-0.1541843,0.6376076,-0.1311166,0.0091336,0.3378267,0.3505554,0.4341679,-1.1490732,0.0161302,-1.3528436,-0.0243685],"b1":[-0.2779939,-0.0072005,-0.0654796,0.1732952,0.3558369,-0.066693,-0.2861159,-0.0675238,-0.1184298,0.3416278,-0.0730838,-0.0305776],"w2":[0.3548606,0.3769868,-0.8081074,0.2674166,0.9620116,0.2449828,-0.0888069,-0.4619921,0.0218568,1.2524625,-2.3974668,0.5023976,-1.5613015,-0.5562213,0.043045,-0.0219608,0.6653244,0.0736943,-0.3279039,1.1389013,-1.2817795,0.6101714,0.5440449,-1.0363484,0.598319,-0.6162024,-0.8410047,-0.4674393,-1.0439044,0.2930743,1.6152075,1.0646934,0.3571142,-1.0510453,0.1288998,-0.2376869,-0.181313,-0.401678,-0.8488831,0.3205893,-1.3399752,0.2711444,0.7153033,-0.3935362,0.5183754,0.7832193,-1.1645231,1.8321982,-1.1802171,0.6629653,0.0222136,0.482336,-1.546144,0.0702139,0.2745085,-0.2874821,0.5587903,-0.0308904,-0.2769179,0.8353822,-0.4474314,0.6364267,-0.0616212,-0.7635135,-0.4718312,-0.8489398,1.0760673,0.0659921,-1.0520778,1.0678749,-1.5274089,0.2083542,0.8700116,-1.9644595,-0.6283092,-0.0876034,0.6172153,-0.3514443,-0.6397219,0.3941038,0.5939631,0.7538841,1.1981499,-0.3153449,-0.7755607,0.1078566,0.1177791,0.6470592,-0.4689425,-0.3069002,-1.0905274,-1.3098349,0.6674323,0.2928211,-0.1124771,1.1057063],"b2":[0.1999372,0.2937849,-0.2614653,0.0182897,0.0732346,-0.2972367,0.0672967,-0.2138023],"w3":[-1.840961,1.0755183,1.3569472,-0.904476,1.2185773,-0.339515,-2.1015542,-0.9721748,-1.017309,1.9832827,-0.3426037,1.3782512,1.0480666,-1.4979989,1.3818236,1.7383728,0.6591137,0.4966865,1.8007651,1.6188036,0.3160653,2.4939188,-0.8638923,-1.9180358,1.6669378,-1.9525338,2.0153999,1.4201375,-0.8141426,-1.3068951,1.1584147,-0.8990152,1.73145,-0.1384294,-1.2294361,1.2430956,1.087582,2.2059346,-1.036484,1.8387869,-1.4626511,-0.0838472,3.2235153,-1.9785509,-2.2977409,0.8305459,1.5406211,-0.8883999,-1.518435,-1.2964256,-1.6068268,-0.5874726,0.3167413,-1.2360029,-2.325015,1.5766125,-2.69089,0.9841265,-2.4875622,-0.7799506,-1.5277318,-0.7298225,0.8335642,-0.8929878,1.1681425,-3.1979007,-0.7374988,1.4177611,1.4431837,-0.5534053,1.9005934,1.6131223,2.7552592,1.4870967,-1.6254618,-1.5953802,-1.4146116,0.3651966,-0.0898452,-0.3620666],"b3":[-0.0783624,0.291637,0.3553452,0.1672761,0.0707827,-0.0453915,0.0231889,-0.7575271,-0.5760327,0.5490839]};
